
#ifndef KERNEL_H
#define KERNEL_H

#include <math.h>

const double GAUSS_KERNEL[5*5] =  { 4.416975463607265*pow(10,-5), 0.001290829444032, 0.003976034602587, 0.001290829444032, 4.416975463607265*pow(10, -5),
                                    0.001290829444032           , 0.037723565985568, 0.116196763550018, 0.037723565985568, 0.001290829444032,
                                    0.003976034602587           , 0.116196763550018, 0.357911228876509, 0.116196763550018, 0.003976034602587,
                                    0.001290829444032           , 0.037723565985568, 0.116196763550018, 0.037723565985568, 0.001290829444032,
                                    4.416975463607265*pow(10,-5), 0.001290829444032, 0.003976034602587, 0.001290829444032, 4.416975463607265*pow(10,-5) };

const double GABOR_00_KERNEL[5*5] = { -0.510143783744886, -0.628006302555330, -0.673061067539018, -0.628006302555330, -0.510143783744886 ,
                                      -0.686517712143974, -0.845129282723722, -0.905761001002688, -0.845129282723722, -0.686517712143974 ,
                                       0.757945762054219,  0.933059915130099,  1.0              ,  0.933059915130099,  0.757945762054219 ,
                                       0.686517712143974,  0.845129282723722,  0.905761001002688,  0.845129282723722,  0.686517712143974 ,
                                      -0.510143783744886, -0.628006302555329, -0.673061067539017, -0.628006302555329, -0.510143783744886 };

const double GABOR_45_KERNEL[5*5] = {  0.316041991529005, -0.490346917282630, -1.000935896555919, -0.314949637645769,  0.574481778215950 ,
                                      -0.490346917282630, -1.149707064996349, -0.415530574103585,  0.870600805222588,  0.933718090255184 ,
                                      -1.000935896555920, -0.415530574103585,  1.0              ,  1.231906208861937,  0.135701505060078 ,
                                      -0.314949637645768,  0.870600805222588,  1.231906208861936,  0.155871099872671, -0.724752345861218 ,
                                       0.574481778215950,  0.933718090255184,  0.135701505060078, -0.724752345861218, -0.557275295877272 };


const double GABOR_90_KERNEL[5*5] = { -0.510143783744887, -0.686517712143974, 0.757945762054219, 0.686517712143974, -0.510143783744886 ,
                                      -0.628006302555330, -0.845129282723722, 0.933059915130099, 0.845129282723722, -0.628006302555329 ,
                                      -0.673061067539018, -0.905761001002688, 1.0              , 0.905761001002688, -0.673061067539017 ,
                                      -0.628006302555330, -0.845129282723722, 0.933059915130099, 0.845129282723722, -0.628006302555329 ,
                                      -0.510143783744887, -0.686517712143974, 0.757945762054219, 0.686517712143974, -0.510143783744886 };



const double GABOR_135_KERNEL[5*5] = { 0.574481778215950,  0.933718090255184,  0.135701505060078, -0.724752345861218, -0.557275295877272,
                                      -0.314949637645769,  0.870600805222588,  1.231906208861937,  0.155871099872671, -0.724752345861218 ,
                                      -1.000935896555919, -0.415530574103585,  1.0              ,  1.231906208861936,  0.135701505060078 ,
                                      -0.490346917282630, -1.149707064996349, -0.415530574103585,  0.870600805222588,  0.933718090255184 ,
                                       0.316041991529005, -0.490346917282630, -1.000935896555920, -0.314949637645768,  0.574481778215950 };

#endif